-0.24512462907608226
0.8658611278116465
0.2489268493024702
0.2568982286264043
-1.1183445589980903
0.4841371457736266
0.3529329256302253
-0.49678548797497746
-0.043075772081746844
0.6140013810534966
0.26619035238139516
0.04038242352598248
-0.1429687462605148
1.000015717538043
-0.8920330815647646
0.2031616972673583
-0.05903730955557944
-0.4644407188358153
0.0004216172194205399
0.4927945619516787
0.07983609596068562
-0.6193128051956517
1.1051495624120273
-0.6588854390027195
-0.10553789039631972
-0.19219635199685853
-0.6892532085417249
-0.8851395329759997
-0.48705935162322234
0.7453156608075353
-0.7371547157072786
-0.6173788704208659
-0.5637606089235384
0.37699687286726646
1.4252487283952437
-0.23648144052012157
-0.5611896086555785
0.08135166905092196
-0.5722833900536793
0.03240065922338228
-0.25079674973650906
0.677032199104687
0.3031223062287201
-0.014716441430538955
-0.4637431730393803
-0.5189088380943547
0.41023478584979434
-0.25279322117613817
-0.4993769507496919
-0.23830426809096866
